<?xml version="1.0"?>
<opencv_storage>
<cascade>
  <stageType>BOOST</stageType>
  <featureType>HAAR</featureType>
  <height>24</height>
  <width>24</width>
  <stageParams>
    <boostType>GAB</boostType>
    <minHitRate>9.9500000476837158e-01</minHitRate>
    <maxFalseAlarm>2.0000000298023224e-01</maxFalseAlarm>
    <weightTrimRate>9.4999999999999996e-01</weightTrimRate>
    <maxDepth>1</maxDepth>
    <maxWeakCount>100</maxWeakCount></stageParams>
  <featureParams>
    <maxCatCount>0</maxCatCount>
    <featSize>1</featSize>
    <mode>BASIC</mode></featureParams>
  <stageNum>4</stageNum>
  <stages>
    <!-- stage 0 -->
    <_>
      <maxWeakCount>2</maxWeakCount>
      <stageThreshold>-3.9438079111278057e-03</stageThreshold>
      <weakClassifiers>
        <_>
          <internalNodes>
            0 -1 6 -6.6574446856975555e-02</internalNodes>
          <leafValues>
            9.4594591856002808e-01 -9.7609561681747437e-01</leafValues></_>
        <_>
          <internalNodes>
            0 -1 10 4.4842898845672607e-02</internalNodes>
          <leafValues>
            -9.4988977909088135e-01 9.7768783569335938e-01</leafValues></_></weakClassifiers></_>
    <!-- stage 1 -->
    <_>
      <maxWeakCount>3</maxWeakCount>
      <stageThreshold>-9.7346532344818115e-01</stageThreshold>
      <weakClassifiers>
        <_>
          <internalNodes>
            0 -1 2 -4.7425750643014908e-02</internalNodes>
          <leafValues>
            9.5833331346511841e-01 -9.6442687511444092e-01</leafValues></_>
        <_>
          <internalNodes>
            0 -1 4 -1.1045661568641663e-01</internalNodes>
          <leafValues>
            9.2740380764007568e-01 -9.3207216262817383e-01</leafValues></_>
        <_>
          <internalNodes>
            0 -1 0 -7.2954230010509491e-02</internalNodes>
          <leafValues>
            9.2303371429443359e-01 -9.0332305431365967e-01</leafValues></_></weakClassifiers></_>
    <!-- stage 2 -->
    <_>
      <maxWeakCount>3</maxWeakCount>
      <stageThreshold>-9.1866898536682129e-01</stageThreshold>
      <weakClassifiers>
        <_>
          <internalNodes>
            0 -1 8 -9.0474948287010193e-02</internalNodes>
          <leafValues>
            9.5488721132278442e-01 -9.2263054847717285e-01</leafValues></_>
        <_>
          <internalNodes>
            0 -1 1 -1.2120363861322403e-01</internalNodes>
          <leafValues>
            9.3269443511962891e-01 -8.1655895709991455e-01</leafValues></_>
        <_>
          <internalNodes>
            0 -1 9 8.2263931632041931e-02</internalNodes>
          <leafValues>
            -7.9961293935775757e-01 8.2052052021026611e-01</leafValues></_></weakClassifiers></_>
    <!-- stage 3 -->
    <_>
      <maxWeakCount>4</maxWeakCount>
      <stageThreshold>-5.3581708669662476e-01</stageThreshold>
      <weakClassifiers>
        <_>
          <internalNodes>
            0 -1 5 -1.0353671014308929e-01</internalNodes>
          <leafValues>
            9.2753624916076660e-01 -9.3359375000000000e-01</leafValues></_>
        <_>
          <internalNodes>
            0 -1 11 -2.1060571074485779e-02</internalNodes>
          <leafValues>
            8.0365204811096191e-01 -8.1727492809295654e-01</leafValues></_>
        <_>
          <internalNodes>
            0 -1 7 1.0872215963900089e-02</internalNodes>
          <leafValues>
            -8.9023959636688232e-01 5.3838461637496948e-01</leafValues></_>
        <_>
          <internalNodes>
            0 -1 3 -4.8351731151342392e-02</internalNodes>
          <leafValues>
            6.7666697502136230e-01 -8.0747413635253906e-01</leafValues></_></weakClassifiers></_></stages>
  <features>
    <_>
      <rects>
        <_>
          0 3 6 21 -1.</_>
        <_>
          3 3 3 21 2.</_></rects>
      <tilted>0</tilted></_>
    <_>
      <rects>
        <_>
          0 4 6 20 -1.</_>
        <_>
          3 4 3 20 2.</_></rects>
      <tilted>0</tilted></_>
    <_>
      <rects>
        <_>
          0 6 4 18 -1.</_>
        <_>
          2 6 2 18 2.</_></rects>
      <tilted>0</tilted></_>
    <_>
      <rects>
        <_>
          0 18 8 5 -1.</_>
        <_>
          4 18 4 5 2.</_></rects>
      <tilted>0</tilted></_>
    <_>
      <rects>
        <_>
          0 20 24 4 -1.</_>
        <_>
          8 20 8 4 3.</_></rects>
      <tilted>0</tilted></_>
    <_>
      <rects>
        <_>
          1 0 7 14 -1.</_>
        <_>
          1 7 7 7 2.</_></rects>
      <tilted>0</tilted></_>
    <_>
      <rects>
        <_>
          2 0 21 6 -1.</_>
        <_>
          2 3 21 3 2.</_></rects>
      <tilted>0</tilted></_>
    <_>
      <rects>
        <_>
          12 22 12 1 -1.</_>
        <_>
          18 22 6 1 2.</_></rects>
      <tilted>0</tilted></_>
    <_>
      <rects>
        <_>
          17 0 6 12 -1.</_>
        <_>
          17 6 6 6 2.</_></rects>
      <tilted>0</tilted></_>
    <_>
      <rects>
        <_>
          18 2 6 21 -1.</_>
        <_>
          21 2 3 21 2.</_></rects>
      <tilted>0</tilted></_>
    <_>
      <rects>
        <_>
          20 2 4 21 -1.</_>
        <_>
          22 2 2 21 2.</_></rects>
      <tilted>0</tilted></_>
    <_>
      <rects>
        <_>
          21 0 1 14 -1.</_>
        <_>
          21 7 1 7 2.</_></rects>
      <tilted>0</tilted></_></features></cascade>
</opencv_storage>
